#ifndef WEIGHTS_H_                
#define WEIGHTS_H_                
#include "global.h"

static dense_biases_t dense1Biases[DENSE_1_OUTPUT_WIDTH]  = {-0.09375,1.09375,0.09375,0.75,1.28125,0.09375,0.375,0.75,0.0,0.0,0.0,0.6875,0.59375,0.4375,0.71875,0.5625 };
static dense_weight_t dense1Weights[MODEL_INPUT_WIDTH * DENSE_1_OUTPUT_WIDTH] = {0.0,0.0,0.0,0.0,0.0,0.0,0.0,0.0,0.0625,0.0,-0.03125,0.0,3.40625,0.0,0.0,-1.34375,0.65625,0.03125,0.59375,0.0625,0.0,0.0,0.40625,0.0,0.0,0.0625,0.0,0.0,-0.375,0.03125,0.0,-0.9375,0.0,0.03125,0.0,0.0,-0.78125,-0.34375,0.0,1.125,0.875,0.71875,-0.96875,0.0,0.03125,-1.125,0.28125,-0.15625,0.0,0.0,0.125,-0.15625,-0.1875,-1.09375,0.3125,-0.5625,0.90625,0.40625,-1.0,0.9375,-0.0625,0.0,-0.90625,0.15625,0.0,-1.4375,0.0,0.6875,0.46875,-0.4375,0.15625,0.0,1.28125,-0.25,-1.40625,0.0,0.0,0.0,0.25,0.0 };
static gravnet_biases_t dense2Biases[DENSE_2_OUTPUT_WIDTH] =  {0.055664062,0.0036621094,-0.017700195,-0.009277344,-0.061523438,-0.044311523 };
static gravnet_weight_t dense2Weights[DENSE_1_OUTPUT_WIDTH * DENSE_2_OUTPUT_WIDTH] = {0.052978516,0.0,0.0,-0.0014648438,0.05859375,0.0,-0.06274414,0.0,-0.03100586,0.0034179688,0.0,0.056762695,-0.06628418,0.0,0.0,0.0,-0.0657959,-0.005859375,0.0,0.0,0.0,0.0,0.0,-0.024291992,0.16418457,0.21496582,0.14123535,0.2010498,-0.12683105,-0.1184082,0.0,-0.07409668,0.080444336,-0.016235352,0.0,-0.023803711,0.012817383,0.0,0.01159668,0.0,0.0,0.0,0.0,-0.17749023,0.099487305,0.018310547,-0.060424805,0.0,0.11767578,-0.08166504,-0.021484375,-0.08276367,0.026123047,-0.16662598,-0.02331543,-0.015625,-0.009887695,0.0,0.0,0.0,-0.0904541,0.07714844,0.02355957,0.0715332,0.0,0.1640625,0.0,0.0,-0.28710938,0.0,-0.12597656,0.1184082,0.0,-0.010620117,-0.036987305,0.0,0.0,0.028808594,0.0,0.0,-0.040283203,0.007446289,0.0,0.038208008,0.03930664,-0.025878906,0.1739502,0.0,0.0,-0.087768555,0.0,-0.004760742,-0.025390625,0.009277344,0.0,0.022094727 };
static gravnet_biases_t dense3Biases[DENSE_3_OUTPUT_WIDTH] = {1.2297363,0.6619873,-0.26550293,1.3189697,1.5671387,0.2310791,1.3377686,0.6768799 };
static gravnet_weight_t dense3Weights[DENSE_1_OUTPUT_WIDTH * DENSE_3_OUTPUT_WIDTH] = {-2.0063477,-0.40283203,-0.33666992,-0.83740234,0.08544922,0.06311035,-0.10058594,-0.17919922,-0.17687988,0.03527832,-0.09057617,-0.16186523,0.0,0.09289551,0.0,0.0,-1.4171143,0.0,0.32666016,0.75598145,0.0,0.0,-0.14868164,0.0,0.0,0.0,0.94018555,0.0,0.0,-0.08728027,0.0,0.0,0.0,-1.1324463,0.0,0.0,-1.001709,-0.04699707,0.15014648,0.0,0.0,0.16308594,0.40124512,0.079589844,0.0,-1.095459,-0.06311035,0.0,0.107910156,0.65930176,0.0,0.9255371,-0.07348633,0.0,-0.7788086,0.0,0.31970215,-0.6956787,-0.7297363,0.0,0.0,-0.07067871,-0.33117676,0.39746094,0.0,0.70202637,-0.75341797,-0.29187012,0.0,0.6369629,0.12121582,0.44262695,-0.115478516,0.0,-0.46142578,-0.096191406,0.3890381,0.6390381,0.0,0.0,0.0,0.0,0.5136719,0.0,0.36865234,0.0,0.0,0.0,0.07348633,0.0,0.0,0.0,0.2322998,-0.3404541,0.0,0.0,0.0,0.0,-0.22924805,-0.64990234,0.0,-0.29907227,0.0,0.0,0.0,-0.028442383,0.0,0.18945312,-0.34350586,-0.845459,-0.321167,0.17529297,-0.09765625,-0.9361572,0.0,-0.3503418,0.0,0.42382812,-0.17358398,0.5541992,0.4399414,-0.0078125,0.15820312,-0.76538086,0.2388916,0.18518066,0.0,0.7508545 };
static gravnet_biases_t dense4Biases[DENSE_4_OUTPUT_WIDTH] = {0.123413086,0.2984619,0.09448242,0.17199707,0.17480469,0.010986328,0.29309082,-0.010253906,0.08312988,0.08203125,-0.07861328,0.036743164,-0.036987305,-0.0031738281,-0.350708,-0.13269043,-0.037353516,-0.15148926,-0.079956055,-0.21264648,0.4807129,0.021728516,0.07495117,-0.33190918,0.004272461,-0.06591797,0.053466797,0.19396973,0.24377441,-0.0423584,0.22314453,0.06994629 };
static gravnet_weight_t dense4Weights[GRAVNET_1_OUTPUT_WIDTH * DENSE_4_OUTPUT_WIDTH] = {0.0,0.08325195,0.0,-0.12695312,0.06359863,0.0,0.0,0.20422363,0.0,0.0,0.0,0.14526367,0.0,-0.49890137,-0.10620117,0.0,0.0,0.0,-0.2697754,0.0,-0.9265137,0.0,-0.1361084,-0.103027344,0.0,0.0,0.024291992,0.0,0.0,-0.10253906,0.3330078,0.0,0.0,-0.107055664,0.0,-0.06542969,-0.012084961,0.0,-0.052978516,0.0,0.0,-0.0703125,0.0,0.045776367,0.0,-0.26245117,0.055908203,0.02734375,0.0,0.0,0.0,0.0,-0.06665039,0.0,-0.087646484,0.0,0.0,-0.010864258,-0.032226562,0.0,0.3133545,0.0,0.0,0.020629883,-0.0075683594,0.0,0.0,0.111083984,0.03955078,0.051757812,0.01550293,0.0,0.023071289,0.0,0.0,0.34802246,0.0,-0.31774902,-0.09350586,0.0,0.0,-0.23046875,0.30395508,0.0,-0.14489746,-0.09094238,0.0,0.14294434,0.0,0.0,0.0,0.0,0.119018555,0.0,-0.20458984,-0.36865234,0.017089844,-0.029907227,-0.03869629,0.0,-0.1472168,0.0,0.0,-0.10803223,0.0,0.0,0.0,0.13964844,0.08276367,0.0,0.0,-0.06311035,0.033447266,0.0,0.0,-0.049072266,-0.2800293,0.072753906,0.0,0.0,0.0,0.0,0.0,0.033691406,-0.09863281,0.0,0.0,0.0,0.0,0.17797852,-0.050048828,0.0,0.0,0.0,-0.10852051,0.0,0.0,0.3302002,0.0,-0.09851074,0.064453125,0.0,0.0,0.26867676,0.0,0.12658691,0.0,0.15710449,0.3338623,-0.12524414,-0.03161621,0.32714844,0.09863281,0.26574707,0.0,0.22351074,-0.67297363,0.0,0.0,0.0,0.0,0.0007324219,0.0,-0.3630371,-0.2277832,0.0,0.0,0.0,0.0,0.0,-0.047973633,0.0,0.0,0.0,0.0,0.2557373,-0.2874756,-0.05505371,0.009887695,0.0,-0.060668945,0.11657715,0.056152344,-0.09448242,-0.08081055,0.09765625,0.0,0.0,-0.32348633,0.0,0.0,0.0,0.0,-0.10412598,0.0,0.0,-0.020751953,0.0,0.0,0.0,0.0,0.010864258,-0.010131836,0.0,0.0,-0.16247559,0.3137207,0.0,0.0,0.35742188,0.0,0.0,0.08459473,0.12243652,0.18444824,-0.059570312,-0.033813477,0.0,0.0,0.0,-0.040527344,0.0,-0.23474121,-0.1003418,0.0,-0.096069336,0.0,-3.519165,-0.023925781,0.15820312,-0.05517578,0.0,0.0,0.03112793,0.31591797,0.0,0.22399902,0.0,0.08520508,0.0,-0.044677734,0.0,0.0,0.07861328,0.099365234,-0.07128906,-0.34887695,0.0,0.0748291,0.0,0.0,-0.057739258,-0.23620605,0.0,0.0,0.0,0.0,0.0,0.0,-0.09033203,0.044921875,0.18481445,0.1661377,0.0,0.0,0.0,0.04260254,0.0,-0.06298828,0.0,0.0,0.0,0.0,0.0,0.0,-0.07104492,0.0,0.0,0.0007324219,-0.14245605,0.25732422,0.0,0.21057129,-0.053466797,-0.44921875,0.0,0.23925781,0.03100586,0.0,0.0,0.040527344,0.020263672,-0.38085938,0.0,0.0,0.0,0.0,0.02709961,0.0,0.0,0.0,0.0,-0.023925781,0.0,0.0,0.23510742,0.0,0.03540039,0.17285156,0.0,-0.123168945,-0.037719727,0.0,0.0,0.02319336,0.0,-0.17199707,-0.03527832,0.17919922,0.005004883,0.048706055,0.045166016,0.3031006,0.0,-0.03173828,0.0,0.0,0.0,0.0,0.16003418,0.0,0.0,0.0,0.0,0.0,0.0,0.0,0.12976074,0.0,0.33093262,0.09790039,-0.076049805,0.079956055,0.10083008,-0.020629883,0.0,0.0,0.0,0.5455322,-0.0037841797,0.0,-0.028076172,0.0,0.0,0.0,-0.18347168,0.0,0.0,0.0,0.15991211,0.13098145,0.0,0.2647705,-0.21643066,0.0,-0.17138672,0.0,0.0,0.0,0.076049805,0.0,0.25610352,0.00024414062,0.46606445,0.092285156,0.31799316,0.08312988,0.0,0.0,0.0,-0.17175293,0.052490234,0.0,0.0,0.0,0.0,-0.0072021484,0.0,0.8319092,-0.022705078,0.0,-0.052612305,0.0,-0.02758789,0.0,0.0,0.0,0.0,0.0,0.0,-0.019897461,0.0,0.0,-0.026489258,-1.2915039,0.0,0.006225586,0.0,-0.018676758,0.0,0.0,0.0,-0.029907227,0.14160156,-0.048583984,0.0,0.0,-0.12683105,0.06616211,0.32385254,0.0,0.0,0.0,0.091430664,-0.12731934,-0.16003418,-0.010375977,0.0,-0.041870117,0.0,0.0,0.0,0.0,-0.08935547,0.0,-0.08654785,-0.23388672,0.0,0.072631836,0.0925293,0.0,0.11694336,0.060913086,0.0,-0.27160645,0.009643555,0.0,0.0,0.0,0.0,0.06188965,-0.49499512,0.0,0.0,0.012207031,0.1484375,0.07531738,0.0,0.0,0.0,0.28405762,-0.5332031,0.1270752,0.0,0.0,0.0,0.28845215,0.0,0.18554688,0.033935547,0.15234375,0.0,0.09362793,0.20471191,0.0,-0.13867188,-0.33215332,0.0,-0.0390625,0.0,0.0,0.0,0.01159668,0.014770508,-0.0061035156,-0.21801758,0.021728516,-0.22509766,0.0,-0.056274414,0.013549805,0.34484863,0.0,-0.15014648,-0.008911133,0.025756836,0.020507812,0.12890625,0.3380127,0.017211914,0.053588867,0.0,0.041381836,0.030883789,0.1105957,0.05883789,-0.060791016,0.0,0.0,0.3322754,0.0,0.19580078,-0.8256836,0.043823242,0.053344727,-1.1286621,2.6636963,0.0,-0.08862305,-0.10961914,0.7298584,-0.7126465,-0.014770508,1.1094971,0.0,0.0,0.0,0.0,0.36206055,0.1973877,0.28967285,0.0,3.9979248,0.0,-1.4034424,0.35131836,0.21484375,0.23046875,0.38549805,-0.05834961,-0.50927734,0.0,-0.9873047,0.0,0.0,1.5603027,-0.57507324,0.0,-0.9193115,0.0,0.31848145,-0.65185547,0.0,0.0,0.6303711,0.0,-0.50878906,0.0,0.0,-0.36535645,-0.84399414,-0.060913086,-0.21313477,0.0,1.8168945,1.5595703,0.114990234,0.0,0.61828613,-0.6765137,0.0,0.0,0.4293213,-0.122680664,-0.48620605,-0.16113281,-0.22021484,1.4993896,-0.18115234,2.1418457,-0.07849121,-2.2043457,0.72314453,0.0,-0.44934082,-0.06774902,0.10473633,-0.41394043,-0.65600586,-0.21362305,0.0,1.9915771,0.35620117,-1.3757324,0.25793457,1.1455078,-1.0339355,0.9608154,-0.22375488,-1.1899414,0.20166016,0.2503662,-0.14013672,0.0,0.97314453,1.2559814,0.0078125,-0.381958,0.0024414062,-1.4827881,-0.13427734,-3.9520264,-0.633667,2.5318604,-0.36035156,0.58898926,0.0,-0.17163086,-1.1375732,0.3297119,0.0,0.0,0.25646973,-0.8123779,0.70410156,-0.4091797,-0.13085938,-0.13952637,-3.999878,-0.4399414,0.45483398,0.0,0.0,-0.10241699,0.0,0.4152832,0.0,1.0466309,-0.72229004,0.0,-2.1479492,-0.38305664,0.3626709,-1.5671387,0.6639404,-1.1958008,-1.1264648,0.0,-0.76220703,0.62609863,0.75146484,0.0,0.0,0.0,1.7469482,-0.86608887,0.37390137,1.3139648,0.0,0.9421387,0.12463379,1.3864746,0.46374512,-1.1679688,-0.49169922,-0.040893555,-0.3623047,-0.32556152,1.0494385,0.6496582,0.38012695,0.0,0.58703613,-0.6179199,-0.23352051,-0.40478516,-1.2816162,-1.2321777,0.2109375,0.0,-1.2493896,0.0,1.2198486,0.0,-0.13903809,0.0,-0.27990723,-0.9333496,-1.1131592,0.07873535,0.24304199,0.0,0.88220215,-0.22387695,-0.3762207,-1.0391846,0.0,-0.53930664,0.0,-0.6274414,1.0567627,1.0227051,-0.033447266,-0.49694824,-0.84155273,-0.05419922,-1.005249,-1.6185303,2.1379395,0.0,-0.11462402,0.0,-0.35656738,0.0,-1.0756836,-0.4255371,-1.0224609,0.0,0.022583008,0.0,2.1658936,-0.50927734,-0.7463379,0.39208984,3.986206,0.30517578,-0.94677734,1.0698242,0.0,-1.065918,0.0,-0.6386719,-0.08850098,0.0,-0.37805176,1.0645752,-0.4041748,-0.85253906,-0.8380127,-0.2232666,0.026000977,2.3044434,0.0,0.0,1.3243408,1.1855469,-1.0039062,0.0,-0.4753418,0.15344238,0.0,0.0,-0.12023926,0.0,0.0,-0.08093262,-3.267212,-0.23364258,-1.1563721,0.0,-0.67211914,0.35205078,0.9935303,-0.44921875,-0.6031494,1.6109619,0.0,2.0471191,-0.5001221,-0.07543945,0.0,-0.5748291,-0.99731445,-0.16918945,0.0,-0.69555664,-0.36254883,-0.2836914,0.0,-0.6357422,0.0,0.1875,-0.35412598,-0.16833496,-0.12609863,0.30322266,0.0,0.0,1.017334,0.09387207,0.16906738,0.08728027,0.10266113,0.0,0.0,-0.014892578,-0.30566406,-1.0845947,0.14990234,-0.41503906,0.26940918,1.1153564,-0.0513916,1.8101807,1.5892334,0.91064453,0.0,0.0,0.0,-0.32080078,-0.25012207,0.7519531,-0.078125,0.15307617,-0.31799316,-2.2753906,0.0,-0.099243164,0.16955566,0.0,-0.12158203,0.052612305,-0.83703613,-0.3178711,0.25927734,0.39831543,0.0,0.0,-1.2030029,-0.43725586,0.26489258,0.48779297,-0.20751953,0.40014648,0.0,0.69750977,-0.4333496,0.0,-0.103393555,0.0,0.26953125,0.0,-1.1800537,0.0,0.0,0.0,0.171875,0.26733398,1.5268555,0.0,0.059814453,0.29406738,0.08666992,-0.63378906,0.38000488,0.030029297,0.0,0.0,0.0,0.095947266,0.3684082,0.0,0.3140869,0.2319336,0.0,0.024658203,-0.10913086,-0.5283203,-0.5383301,0.0,0.0,0.2993164,0.0,0.0,-0.3043213,0.31030273,0.0,0.0,0.42822266,0.0,0.0,0.0,0.0,0.0,-0.6759033,0.0,-1.0198975,0.26757812,0.0,0.0,0.0,-0.15771484,-0.25439453,0.0,0.0,0.8687744,0.0,-0.38024902,0.020507812,-0.6439209,0.5744629,0.0,0.0,-0.08093262,0.0,-0.09387207,0.26733398,0.0,-0.1932373,-0.20007324,-0.21447754,0.0,0.37719727,0.0,0.0,0.17211914,-0.38269043,0.0,-0.13342285,-0.10949707,-0.13928223,-0.072143555,0.0,-0.07299805,0.7664795,0.087524414,0.0,0.0,0.0,-1.4605713,-0.1529541,1.4084473,-0.5637207,-0.09326172,-0.010620117,-0.06286621,0.0,0.05432129,0.328125,0.0,-0.29260254,0.0,0.13366699,0.10266113,0.32788086,0.0,0.0,-0.0925293,-0.9857178,-0.14685059,-1.427002,-0.26013184,0.0,0.0,0.0,0.05529785,-0.6278076,0.0,0.061767578,0.0,-1.1219482,0.2800293,0.0,0.64611816,-1.1154785,-1.0939941,0.46557617,0.0,-0.6624756,-0.17211914,-0.38598633,0.0,-0.25927734,0.0,0.4555664,0.0,0.0,-0.17541504,0.0,-0.10644531,0.7779541,0.28759766,0.6939697,-0.21362305,0.58410645,0.0,-0.8031006,0.0,0.2677002,0.0,0.0,-1.3554688,-0.064697266,-0.23632812,-0.046875,-0.46813965,-0.08483887,0.4453125,0.0,0.36328125,0.21252441,0.025634766,-0.24914551,0.0,0.36572266,0.29675293,0.0,0.0,0.0,0.0,0.0,-0.2253418,-0.39001465,-0.087646484,-0.87402344,0.0,0.021606445,0.0,0.0,0.15539551,-0.40270996,0.28503418,0.0,0.0 };
static dense_biases_t dense5Biases[DENSE_5_OUTPUT_WIDTH] = {0.84375,-0.375,0.46875,0.53125,0.03125,0.125,0.125,0.0,0.21875,0.46875,0.3125,0.0625,0.34375,-0.25,0.15625,0.25 };
static dense_weight_t dense5Weights[DENSE_4_OUTPUT_WIDTH * DENSE_5_OUTPUT_WIDTH] = {-0.28125,0.0,0.0,0.1875,-0.375,0.21875,-0.34375,0.0,-0.03125,0.0,0.0,0.0,0.0,0.0,-0.59375,0.0,-0.90625,0.0,0.0,0.46875,0.0,0.34375,0.09375,-0.0625,0.90625,0.0,0.0,0.0,-0.03125,0.0,-0.5,0.1875,-0.03125,0.0,0.375,0.03125,0.0,0.0,0.5,0.34375,0.375,-0.34375,-0.34375,-0.59375,0.0,0.4375,0.0,0.0,0.0625,-1.8125,-0.3125,0.125,0.0,0.0,0.0,0.0,-0.6875,-0.15625,0.0,0.0,-0.5,0.0,-0.1875,-0.53125,0.09375,0.0,-0.03125,-0.0625,0.0,0.03125,0.0,0.0,1.875,0.0,0.0,0.03125,0.25,0.0,0.0,0.0,-0.3125,0.0,0.0,0.0,0.0,0.0,0.0,0.0,-0.875,0.5,0.0,0.0,-0.46875,0.0,-0.40625,-0.03125,-1.5625,0.53125,0.0,0.375,-0.1875,0.0,-0.21875,0.0,0.375,0.0,0.46875,0.0,-0.65625,0.0,0.0,0.5625,-0.03125,-0.34375,0.0,0.0,0.625,0.0,-0.5,0.03125,-1.40625,0.0,0.0,0.0,-0.375,0.0,-0.09375,0.21875,-0.46875,0.0,-0.0625,0.3125,0.4375,0.0625,0.59375,-0.46875,0.0,0.25,0.1875,0.0,0.0,0.0,-0.1875,0.0,0.0,0.0,0.0,-0.875,0.0,-0.09375,-0.9375,0.25,0.6875,0.1875,0.0,0.59375,-0.3125,0.40625,-0.09375,-0.375,-0.75,0.34375,0.40625,-0.59375,0.0,0.0,0.0,0.0,0.4375,0.0,0.09375,0.0,0.0,0.0,-0.46875,0.59375,0.0,0.0,0.0,0.0,0.6875,0.0,0.0,0.0,0.125,0.0,0.0,0.0,0.0,0.0,-0.0625,-0.09375,-0.125,0.65625,0.59375,0.53125,0.0,0.0,0.0,0.0,0.40625,-0.375,-0.5,0.0,0.15625,0.5625,0.09375,-0.3125,0.0,0.0,-0.15625,-0.1875,-0.34375,-0.53125,0.25,0.0,0.0,0.3125,-0.28125,-0.40625,0.0,-0.34375,0.0,-0.375,-0.09375,0.25,0.0,0.0,0.0,0.25,0.0,0.0,-1.0625,0.65625,0.0,0.0,0.28125,0.0,-0.4375,0.0,-0.21875,0.0,0.0,0.6875,0.0,0.09375,0.15625,0.0,-0.125,0.09375,0.0,0.0,0.0,0.75,-0.34375,0.0,0.03125,-0.4375,0.0625,-0.15625,0.0,-0.125,0.0,0.0,0.1875,-0.0625,-0.1875,0.0,0.0,0.0,0.21875,-0.59375,-0.25,-0.3125,0.1875,-0.4375,0.28125,0.0,0.625,0.03125,0.0,-0.25,0.125,0.0,0.0,-0.28125,-0.40625,0.0,-0.6875,0.0,0.0,0.0,-0.40625,-0.25,0.0,0.0,-0.53125,0.0,0.0,0.0,-0.34375,0.15625,-0.28125,0.3125,0.0,-0.625,-0.4375,0.0,0.0,0.0,-0.0625,0.0,-0.09375,-0.15625,0.15625,-0.40625,0.09375,0.0,0.0,0.0,0.34375,0.0,0.28125,-0.53125,0.0,1.09375,0.40625,-0.15625,-3.75,0.8125,-0.03125,-0.03125,0.34375,0.1875,-0.15625,0.0,-1.21875,-0.21875,-0.125,0.0,0.0,-0.375,0.0,0.1875,-0.03125,0.375,0.65625,0.0,0.0,0.625,0.0,0.71875,-0.40625,0.0,0.0625,0.3125,0.0,0.15625,0.09375,-0.09375,-1.125,0.0,0.0,-0.0625,0.0625,0.125,-0.3125,0.0,-1.21875,0.09375,0.0,0.5,0.0,0.0,0.0,0.65625,0.0625,0.40625,0.0,-0.03125,0.0,-0.5625,0.0,0.375,0.59375,0.0,0.0,0.125,0.0,0.15625,0.5625,-0.25,-0.15625,0.0,0.0,0.5625,-0.3125,-0.375,-0.125,0.15625,0.0,0.0,-0.28125,-0.6875,0.1875,0.0,0.4375,0.40625,-0.53125,-0.25,0.0,0.53125,0.0,0.5,-0.125,-0.28125,0.03125,0.8125,0.0,0.0,0.46875,0.0,0.1875,0.0,-0.375,-0.09375,-0.09375,0.53125,0.3125,-0.125,0.0,0.0,0.34375,-0.40625,-0.59375,-0.5,0.09375,0.65625,0.0,0.25,0.25,-0.4375,0.65625,0.0,0.0,-0.40625,0.0,0.0,1.0625,0.0,-0.125,0.0,0.21875,0.0,0.0,-0.15625,-1.0,0.0,0.0,-0.125,1.15625,0.09375,1.3125,-0.0625,0.53125,0.0,0.09375,0.0,-0.6875,0.0,0.40625,0.0625,-1.5,0.0,0.09375,-0.03125,0.0,0.0,0.65625,0.0,-0.1875,0.0,0.09375,0.59375,-0.34375,-0.40625,-0.6875,-0.03125,0.0,0.4375,0.0,0.0,0.21875,0.0,0.15625,0.0,-0.03125,-0.03125,-0.125,0.0,-0.625,0.0,-1.4375,0.0,-1.0625,0.5,-0.125,0.0,-0.40625,-0.03125,0.0625,0.0 };
static dense_biases_t dense6Biases[DENSE_6_OUTPUT_WIDTH] = {-0.28125,-0.03125,1.3125,0.1875,0.53125,0.125,0.375,0.5625,-0.46875,0.15625,-0.03125,0.4375,-0.09375,-0.34375,1.0,0.5 };
static dense_weight_t dense6Weights[DENSE_5_OUTPUT_WIDTH * DENSE_6_OUTPUT_WIDTH] = {-1.375,-0.6875,-0.5625,0.09375,-0.40625,-0.34375,0.5,0.03125,-0.78125,0.0,1.375,-0.21875,0.0,0.15625,0.0,0.25,-0.21875,0.28125,0.0,0.0,0.0,-0.1875,0.0,0.03125,0.0,0.125,0.78125,0.0,0.0,0.0,0.0,0.0,0.0,0.0,0.78125,0.15625,0.0,0.15625,0.9375,0.4375,0.03125,0.0,0.0,-0.4375,0.4375,0.0,0.0,0.0,0.0,0.0,1.25,0.0,0.0,0.0,-1.15625,1.1875,-0.28125,0.75,0.5625,1.71875,0.0,0.0,0.0,0.0,0.0,-0.5,0.15625,0.90625,0.0,0.0,0.0,0.0,0.0,0.0,0.0,0.1875,0.65625,0.5625,-1.375,0.0,0.0,0.0,0.0,0.15625,0.0,0.3125,-0.125,0.25,0.46875,0.96875,0.0,0.84375,0.25,-0.1875,0.0,0.0,0.0,0.0,0.375,0.28125,0.0,0.0,0.0,0.0,0.375,0.0,0.4375,0.40625,0.65625,0.96875,-0.625,0.0625,0.75,0.0,0.0,0.53125,0.53125,0.96875,0.4375,-0.71875,-0.21875,0.0,0.0,0.25,0.0,0.0,0.21875,0.6875,-1.875,0.0,0.53125,-0.6875,0.4375,0.59375,-0.6875,0.46875,0.90625,1.8125,1.0625,-0.4375,0.09375,-0.46875,0.0,-0.46875,0.0,0.0,0.9375,0.0,0.90625,0.84375,-0.71875,0.1875,0.03125,-0.3125,0.03125,-0.125,-0.40625,0.0,0.28125,-0.28125,0.0,0.0,0.0,0.0,0.65625,0.0,0.3125,0.0,-0.9375,0.5,0.0,0.5625,0.5,0.0,0.0,-0.3125,0.1875,-0.4375,-1.3125,0.0,0.0,0.0,0.65625,0.46875,0.0,0.0,0.4375,0.0,0.0,-0.3125,0.0,0.0,0.0,0.0,1.03125,0.0,0.53125,0.4375,0.09375,0.09375,0.6875,0.0,0.0,0.0,-0.25,0.3125,0.15625,0.34375,0.125,-0.21875,0.0,0.0,-0.5,0.28125,0.125,0.0,0.0,0.0,-0.15625,-0.3125,0.0,0.09375,0.0,0.3125,-1.3125,-0.21875,0.0,0.3125,0.09375,-0.4375,0.21875,0.0,1.5,0.25,1.96875,0.1875,0.40625,-0.15625,-0.09375,-0.21875,0.0,-0.3125,0.0,-0.09375,0.0,-0.375,0.34375,0.0,-0.03125,0.0,-0.65625,0.0,0.4375,0.0,0.0,0.0 };
static gravnet_biases_t dense7Biases[DENSE_7_OUTPUT_WIDTH] = {0.06311035,0.04309082,-0.028564453,-0.01159668,-0.03479004,0.018310547 };
static gravnet_weight_t dense7Weights[DENSE_6_OUTPUT_WIDTH * DENSE_7_OUTPUT_WIDTH] = {0.0,0.03515625,0.0,-0.009765625,0.017211914,0.09851074,0.3557129,-0.58618164,0.29589844,-0.18554688,0.12536621,-0.1328125,0.0068359375,-0.06274414,0.040405273,0.0,-0.1381836,0.11621094,0.0357666,0.008056641,0.0,0.0,0.0,0.0,-0.16821289,0.0,-0.07507324,-0.17822266,0.017578125,0.0,0.11999512,0.022583008,0.021606445,0.059814453,0.071899414,-0.09289551,0.040649414,0.055786133,0.05908203,0.0,0.038208008,0.03479004,-0.06726074,0.088134766,0.099853516,0.088378906,0.20166016,0.0,-0.030517578,0.0,0.0,0.0,0.0,-0.0670166,0.0,0.0,-0.07861328,0.0,-0.037353516,0.0,0.033935547,0.013916016,0.0,0.0,0.0,0.0,0.08459473,0.012817383,-0.011474609,-0.06677246,0.0,-0.07128906,-0.059570312,0.0,0.0,0.023925781,0.025390625,0.0,0.0,0.0,0.0,0.0,0.0,0.0,0.0,0.02722168,0.017822266,0.0,0.0,-0.015625,0.0,-0.041992188,-0.027709961,0.07043457,0.0,-0.10986328 };
static gravnet_biases_t dense8Biases[DENSE_8_OUTPUT_WIDTH] = {-0.39501953,-2.0274658,0.8150635,1.0073242,0.06555176,0.21508789,0.01159668,-0.6234131 };
static gravnet_weight_t dense8Weights[DENSE_6_OUTPUT_WIDTH * DENSE_8_OUTPUT_WIDTH] = {0.27575684,0.0,-0.033203125,0.0,0.0,0.0,0.0,0.0,-0.35742188,0.37548828,-0.4593506,0.0,0.0,0.0,-0.76501465,0.0,-1.0933838,0.0,0.0,0.0,0.12792969,0.0,0.1517334,0.0,-0.5251465,1.8763428,0.21936035,0.57373047,0.4560547,0.91259766,0.3939209,1.3494873,-0.49780273,-0.59399414,0.0,0.0,-0.34472656,0.0,-0.49230957,0.0,0.04724121,-0.9338379,0.0,0.0,-0.60424805,-0.2376709,0.0,-0.6644287,-0.9246826,0.11669922,0.0,0.3572998,0.6347656,1.2387695,0.20898438,0.0,-0.79992676,0.0,0.4437256,0.0,0.0,-0.8330078,0.0,0.3605957,0.0,0.0,0.22021484,0.6855469,0.0,0.0,0.0,-2.7161865,0.0,-0.6867676,0.0,0.0,0.8071289,-0.05419922,-0.5291748,-0.24645996,0.0,0.0,0.14025879,-0.076538086,0.0,-0.15026855,0.36071777,-0.17907715,-0.79504395,0.39953613,0.0,0.0,0.15625,-0.18554688,0.5048828,0.19946289,-0.66955566,1.4558105,1.9615479,0.23754883,0.68725586,0.0,1.40625,0.0,0.55859375,-0.09509277,-0.51135254,0.041259766,-0.10620117,0.0,-0.4650879,0.0,-0.5983887,-2.3272705,-0.41516113,-1.0737305,-0.24487305,-0.19543457,-1.4168701,-0.9859619,0.0,0.0,1.0738525,0.0,0.0,-0.039794922,0.0,0.0 };
static gravnet_biases_t dense9Biases[DENSE_9_OUTPUT_WIDTH] = {0.37524414,-0.006958008,0.014526367,-0.079711914,-0.11730957,0.076293945,0.39282227,0.08300781,-0.049438477,-0.27685547,-0.17687988,0.258667,0.076538086,0.6357422,-0.057861328,0.007080078,0.029541016,-0.002319336,0.037719727,-0.15161133,0.0010986328,-0.013305664,-0.3154297,-0.5394287,0.06188965,0.30517578,-0.06298828,0.22131348,0.14465332,-0.052734375,0.7233887,-0.84375 };
static gravnet_weight_t dense9Weights[GRAVNET_2_OUTPUT_WIDTH * DENSE_9_OUTPUT_WIDTH] = {0.0,0.0,0.18701172,0.19873047,0.0,0.26257324,0.0,0.0,0.0,0.0,0.0,0.0,0.18640137,0.0,-0.06298828,0.0,0.07788086,-0.28430176,0.0748291,0.04296875,0.1550293,-0.06530762,0.044067383,0.0,0.0,0.079711914,0.37963867,0.0,0.052246094,0.017700195,-0.12915039,0.3223877,0.0,0.38879395,0.4807129,0.0,0.0,-0.18151855,0.0,-0.414917,0.27416992,0.0,0.0,0.5529785,0.0,0.0,-0.37719727,-0.1730957,0.0,-0.2515869,0.0,0.0,0.0,0.21484375,0.24963379,0.0,0.5731201,0.28955078,0.0,-0.52734375,0.0,-0.20288086,0.39855957,0.0,0.0,0.0,0.09729004,0.047729492,0.0,0.048706055,0.0,0.0,0.08276367,0.0,0.0,0.0,0.31054688,0.0,0.0,-0.28759766,0.14038086,-0.36437988,0.0,-0.122558594,0.0,0.09399414,0.0,-0.044311523,0.13708496,0.0,0.0,0.103271484,0.0,0.0,0.0,-0.068237305,0.0,0.0,0.0,-0.099731445,-0.18884277,-0.32714844,-0.07897949,0.0,0.0,0.0,0.41430664,0.28308105,-0.15820312,0.0,-0.1619873,0.28796387,0.0,-0.43774414,0.34655762,0.25976562,0.0,0.20983887,0.0,0.0,0.0,0.03955078,0.04638672,0.0,0.10192871,0.0,-0.32995605,0.0,0.0,0.0,0.041259766,0.033081055,0.0,0.0,0.0,0.0,0.0,0.0,0.0,0.19140625,-0.30456543,0.0,0.16821289,-0.24133301,0.0,0.0,0.18017578,-0.08508301,0.0,0.0,0.026855469,0.0,0.0,0.0,0.522583,0.0,0.15161133,-0.060668945,0.0,-0.15991211,0.04333496,0.0,-0.28723145,0.0,0.0,-0.2718506,-0.1508789,0.0,0.26391602,0.2290039,0.0,0.0,-0.0949707,-0.041992188,0.0,-0.16235352,0.0,-0.3602295,-0.30529785,-0.56030273,0.41003418,0.13916016,0.0,0.0,0.17883301,0.0,0.5632324,0.0,0.31481934,0.0,0.31762695,0.0,0.0,0.0,0.0,0.5996094,0.06713867,0.0,0.0,-0.21154785,0.0,0.0,0.13928223,0.122802734,0.0,0.0,-0.005859375,0.0,0.0,0.0,0.0,0.0,0.12756348,0.23388672,-0.16491699,-0.07409668,0.0,-0.0025634766,-0.538208,0.0,0.0,-0.2803955,-0.15917969,0.0,0.0,0.0,0.16674805,-0.6405029,0.0,0.16149902,0.13671875,0.0,-0.11694336,0.19348145,0.0,0.0,0.09838867,0.0,0.09399414,0.0,0.07727051,-0.43981934,0.10632324,0.103881836,0.0,0.0,0.07104492,0.0,0.0,0.0,-0.056030273,0.12512207,-0.33239746,0.12207031,0.0,0.0,0.08947754,0.3050537,-0.72473145,0.4321289,0.49780273,-0.46289062,-1.774292,-1.5290527,-0.28955078,-0.47155762,0.7093506,0.0,-0.10144043,-1.1517334,-0.5698242,0.0,0.42236328,-0.46118164,0.23632812,-0.2947998,0.0,0.4564209,-0.29138184,-0.4621582,0.46020508,-0.24658203,-0.09350586,1.4364014,-0.50891113,-0.6693115,-0.5654297,-0.4210205,0.0,-0.27697754,0.3572998,0.0,0.0,0.5488281,0.15942383,0.31311035,0.0,-0.35961914,-0.6151123,0.15075684,0.0,0.0,0.09460449,0.0,0.15734863,-0.16345215,-0.20947266,0.35021973,0.0,0.0,0.0,0.0,0.0,0.0,0.0,-0.53881836,0.0,0.19482422,0.0,-0.07922363,0.0,-0.24084473,0.0,0.0,0.0,0.0,-0.045043945,0.0,0.0,0.0,-0.008911133,0.0,0.29345703,-0.02746582,-0.18566895,-0.23596191,0.11657715,0.0,0.0,-0.13415527,-0.3441162,0.0,0.0,0.027954102,0.19592285,0.0,0.0,0.0,0.1463623,0.0,0.1048584,0.13684082,0.0,0.0,0.0,-0.25378418,0.0,0.0,0.0,-0.24975586,0.0,0.16503906,0.21386719,-0.25708008,0.28674316,0.0,0.0,0.0,-0.028320312,-0.21679688,0.0,0.0,-0.19641113,0.0,0.0,-0.030029297,-0.1451416,0.0,-0.93237305,0.25317383,-0.27539062,0.0,0.0,-0.037231445,-0.100097656,0.37902832,0.0,0.0,0.24108887,0.0,0.0,0.21386719,0.0,0.32177734,0.0,-0.23388672,0.0,0.0,-0.6582031,-0.24914551,0.0,-0.4597168,0.0,0.18676758,0.0,0.18981934,0.0,0.13244629,0.31750488,-0.17041016,0.0,-0.22241211,0.0,0.0,0.0,0.5345459,0.19238281,-0.4613037,0.0,-0.11999512,0.6187744,0.0,0.083740234,-0.045166016,0.0,-0.20715332,-0.19506836,0.0,-0.088134766,0.0,0.111694336,0.0,0.038208008,0.0,0.0,-0.5073242,-0.046875,-0.24987793,0.21728516,0.0,0.0,0.0,0.13720703,0.0,-0.28527832,-0.12890625,-0.29052734,0.6953125,0.17382812,-0.048339844,-0.3725586,0.0,0.0,-0.14868164,0.046875,-0.28588867,0.1616211,0.0,-0.027709961,0.0,0.0,-0.1586914,0.75109863,0.0,0.29260254,0.0,0.0,0.34423828,0.19543457,-0.44702148,0.0,-0.45654297,-0.036987305,0.35388184,-0.78686523,0.0,0.0,0.06982422,-0.28076172,-1.1550293,-0.12561035,0.21472168,0.0,0.0,0.0,0.19726562,0.0,0.0,0.0,0.18237305,0.0,0.0,0.0,0.0,0.0,-0.5539551,-0.21984863,0.2927246,0.35424805,0.26281738,0.0,0.0,0.0,0.0,0.0,0.0,0.0,0.16723633,0.0,0.0,0.004272461,-0.22558594,0.109375,0.5136719,0.06188965,0.0,-0.3630371,0.0,0.0,0.0,-0.51379395,-0.29638672,-0.3552246,0.0,0.0,-0.51501465,0.0,-0.30859375,0.24853516,-0.49609375,0.29907227,-0.85009766,0.7023926,0.18078613,-0.48950195,-0.3499756,0.47143555,0.27954102,-1.0218506,-0.46191406,0.0,-0.45263672,-0.12182617,-0.7133789,0.0,-0.4309082,0.0,-0.16296387,0.0,-0.79125977,0.41296387,0.0,-0.3668213,0.0,-0.36291504,0.0,-0.9715576,0.63635254,1.279541,0.0,0.4078369,0.0,0.0,0.23181152,0.16992188,-0.8215332,-0.43237305,0.0,0.15673828,0.0904541,0.38171387,0.13549805,0.0,0.0,0.0,0.5280762,0.013183594,-0.31604004,0.0,0.0,0.0,0.0,0.0,0.0,0.0,0.0,0.0,0.2890625,0.3536377,0.51708984,0.9597168,0.29138184,-0.5872803,0.2010498,0.08215332,0.0,-0.7258301,-0.98376465,0.55688477,-0.4312744,-0.43884277,0.0,1.0537109,-0.5107422,0.0,0.44763184,0.0,0.021606445,0.5550537,0.0,0.0,0.9029541,-0.6574707,0.36071777,0.0,0.0,0.40893555,1.1096191,-0.08093262,-0.46069336,0.31762695,1.0888672,-0.076538086,-0.18041992,0.0,0.0,0.0,0.08068848,-1.119751,0.0,-0.18200684,0.0,0.0,-1.3878174,0.5085449,-0.45898438,0.15270996,-0.35925293,0.13562012,0.31188965,0.6772461,0.58447266,0.0,0.0,0.0,-0.38757324,0.0,0.0,0.0,0.0,0.0,0.0,0.66296387,-0.5419922,0.0,-0.33996582,0.0,0.25146484,0.0,-0.06921387,0.0,0.13330078,-1.1292725,0.29382324,0.0,1.3127441,0.2006836,0.32641602,0.67907715,0.0,0.25146484,0.0,0.0,2.2834473,-0.782959,-0.4580078,1.2498779,0.7647705,-3.2684326,0.0,0.0,0.0,-0.954834,0.0,-1.3525391,0.26757812,-0.25268555,0.0,2.0427246,0.0,0.4333496,0.0,2.0705566,1.1230469,-0.9182129,-0.39953613,-0.774292,0.15966797,-1.3186035,-1.0751953,-1.5292969,-0.020507812,-0.32629395,-0.04650879,0.15161133,0.13342285,1.0108643,0.0,-0.5633545,0.0,1.5344238,0.1505127,-0.9451904,-0.042114258,0.8269043,0.2923584,0.28771973,-0.24536133,-0.11279297,0.29467773,0.0,0.0,0.36132812,0.0,0.26745605,1.050415,0.0020751953,-0.82092285,0.0,0.0,-0.115478516,0.0,0.0,-0.09338379,0.0,0.7565918,0.0,0.41577148,-1.088501,0.0,0.3544922,0.0,0.0,0.0,-0.54211426,0.0,0.45422363,0.0,0.0,-0.22485352,-1.9111328,0.36914062,-1.0397949,-0.28771973,0.0,0.0,-1.1328125,-0.28930664,-0.5998535,-1.3428955,-1.4682617,0.0,0.6427002,0.0,0.0,0.12548828,0.03186035,-0.1776123,0.7163086,-0.26062012,-0.53845215,0.7585449,-0.57666016,-1.1398926,-0.13208008,0.80529785,1.3011475,2.0112305,0.19689941,0.0,0.661499,-0.03173828,0.49987793,-0.22180176,0.74938965,0.30065918,-0.73535156,0.585083,0.2265625,-0.3076172,-0.50109863,0.16577148,-0.32373047,-0.14208984,3.4337158,0.701416,0.6402588,0.3260498,0.6500244,-0.8017578,0.0,-0.08312988,0.47277832,0.0,0.39416504,0.26818848,0.32470703,-2.031128,-0.23461914,0.0,1.1221924,0.12585449,0.0,0.23657227,-0.35095215,-0.2220459,-0.15490723,0.0,0.21972656,-0.22875977,0.1685791,1.3453369,0.0,0.39367676,0.0,0.0,-1.8354492,0.23693848,0.0126953125,-1.4615479,0.29260254,0.083862305,-0.24938965,-0.17736816,0.0,0.0,0.2524414,0.2689209,-0.0892334,0.0,0.0,-0.16931152,0.0,0.0,0.0,-0.73864746,-0.21740723,-0.22717285,0.0,-0.36340332,0.0,-0.06555176,-0.5062256,0.0,0.0,1.0908203,0.28930664,0.0,0.119140625,0.0,0.0,0.22521973,0.083496094,-0.29589844,-0.35510254,-0.03112793,0.0,0.5727539,-0.03930664,0.0,-0.043701172,1.2949219,0.0,0.0,0.0,-0.5336914,0.0,-1.0767822,0.0,0.16687012,-0.09814453,0.28234863,-0.2503662,0.0,-0.022583008,0.0,0.115112305,-0.07446289,0.0,0.0,1.9699707,-0.2977295,0.0,0.8890381,-0.30932617,0.19067383,0.0,0.8253174,-0.29504395,0.42907715,-0.17675781,0.0,-0.5695801,0.0,0.0,-0.67871094,0.0,0.0,0.0,-0.30236816,0.0,-0.27233887,-0.8397217,0.0,0.20983887,0.0,0.18017578,-0.15026855,0.47277832,0.30334473,0.0,0.3864746,1.5994873,0.0,0.0,0.39904785,0.0,-0.41149902,0.28222656,-0.07861328,0.7807617,-1.2445068,0.0793457,0.63061523,-0.4338379,0.0,0.0,0.12561035,-0.38757324,0.0,0.25830078,0.43273926,0.24316406,-0.44274902,1.1569824,-0.19726562,-0.26513672,0.0,0.9283447,-0.7186279,0.2886963,0.0,0.0,0.027954102,-0.42370605,0.0,-0.13171387,0.54211426,0.0,0.28625488,0.0,0.0,0.0,0.0,0.14233398,-0.27368164,0.0,0.0,0.0,0.0,-0.70983887,0.0,0.0,1.236206,1.0511475,-0.31518555,0.0,0.0,-0.26171875,0.8399658,-1.2369385,-1.118042,0.061523438,-0.20654297,0.0,-0.25219727,1.9578857,0.0,0.0,0.09313965,-0.021362305,0.0,0.44262695,0.048217773,-1.1276855,0.6052246,0.034301758,-0.5814209,-0.09277344,1.4960938,0.029785156,0.29406738,-1.3845215,0.0,0.0,0.60583496,0.0,0.50842285,0.0,0.17980957,-0.9177246,-0.012451172,-0.61816406,-0.46520996,0.42004395,-0.92663574,-0.8441162,0.0,0.047607422,0.5427246,0.21447754,-0.18652344,0.33569336,1.1912842 };
static gravnet_biases_t denseScaleBiases[DENSE_SCALE_OUTPUT_WIDTH] = {0.09375,-0.375,0.53125,-0.71875,-0.09375 };
static gravnet_weight_t denseScaleWeights[DENSE_SCALE_OUTPUT_WIDTH * MODEL_INPUT_WIDTH] = {0.0,0.0,0.0,0.0,0.0,0.0,0.59375,0.03125,-0.03125,0.0,-0.59375,0.09375,-0.9375,1.25,0.625,-0.1875,-0.09375,0.40625,0.0,0.21875,0.6875,0.0,-0.625,0.0,-0.75 };
static dense_biases_t dense10Biases[DENSE_10_OUTPUT_WIDTH] = {0.28125,0.25,0.8125,-0.1875,-0.375,-0.5,-0.21875,0.0625,-0.09375,0.0,0.0,-0.3125,0.0,-0.125,0.03125,-0.03125 };
static dense_weight_t dense10Weights[DENSE_9_OUTPUT_WIDTH * DENSE_10_OUTPUT_WIDTH] = {0.4375,0.125,0.625,-0.0625,0.28125,0.40625,-1.0,0.15625,0.0625,0.25,0.0,0.0,0.59375,-0.28125,0.0,-0.21875,0.0,0.0,0.1875,0.0,0.375,-0.28125,0.0,0.75,-0.375,0.6875,0.0,-0.1875,0.0,0.0,0.1875,-0.25,0.4375,-0.1875,-1.40625,0.1875,-1.34375,0.0,0.0,-0.34375,0.0,0.0,0.0,-0.625,-0.28125,0.0,0.0,-0.5625,0.46875,-0.125,-1.90625,-0.03125,0.03125,0.25,-0.3125,0.0,-0.5,-3.96875,0.96875,0.0,0.0,0.0,0.0,-0.53125,0.0,-0.125,0.0,0.125,0.1875,0.65625,-0.1875,0.59375,-0.3125,-0.34375,0.0,0.71875,0.0,0.0,0.0,-0.15625,-0.375,0.375,0.4375,0.0,0.0,0.0,0.0,0.53125,-0.28125,0.0,0.0,0.71875,0.71875,0.28125,0.0,-0.59375,0.34375,0.0625,0.15625,-0.65625,-0.40625,0.0,-0.03125,0.0,-0.15625,-0.96875,0.0,0.0,0.1875,-1.1875,0.0,0.3125,0.21875,-0.0625,-0.0625,0.0,0.0625,0.0,0.90625,0.0,-0.21875,-0.03125,-0.34375,0.0,0.5625,0.15625,0.0,-0.28125,-0.34375,0.0,0.34375,-0.1875,-0.4375,0.0,0.0,-0.125,0.0,-0.3125,0.0,0.0,0.0,0.0,0.6875,-0.5,-0.4375,0.0,0.0,0.84375,0.03125,0.0,0.34375,0.0,-0.25,0.0,-0.375,-0.6875,0.0,0.0,-0.4375,-0.15625,0.40625,0.0,0.15625,0.0,-2.03125,0.71875,0.0,0.40625,0.0,0.0,0.0,1.46875,-1.34375,0.0,-0.6875,0.125,0.34375,0.65625,-0.1875,0.0625,0.0,0.0,-0.15625,0.1875,0.0,0.0,0.125,0.0,0.0,-0.34375,0.34375,0.40625,0.59375,0.0,0.21875,0.0,0.28125,0.0,0.0,0.21875,0.0,0.34375,0.0,0.0,0.0,0.0,0.28125,0.21875,-0.25,0.25,-0.59375,0.0,0.0,-0.09375,-3.96875,-0.1875,-0.34375,0.15625,0.0,-1.0,0.0,0.0,0.25,0.15625,0.0,0.0,-0.125,0.25,0.0,-1.03125,-0.59375,0.0,-0.21875,-0.53125,0.0,2.71875,0.0,0.0,0.0,0.25,0.25,0.0,0.0,0.21875,-0.46875,0.28125,-0.28125,-0.25,0.0,0.5625,0.0,0.375,0.0,0.0,0.0,-0.1875,-0.1875,-0.1875,0.875,0.0,0.0,-0.3125,-0.03125,0.0,0.0,1.1875,0.28125,0.0,0.0,0.9375,-0.0625,0.28125,-0.1875,0.0,-0.25,0.0,0.3125,0.0,-0.375,0.1875,-0.28125,0.46875,0.0,0.0,0.0,0.375,0.375,0.0,0.0,-0.21875,-1.34375,0.59375,1.46875,0.0,0.3125,-0.03125,0.0,0.0,0.0,0.0,-1.75,0.0,0.21875,0.0,-0.21875,-0.15625,0.28125,0.0,0.0,0.40625,-0.21875,-0.75,-0.46875,-0.0625,0.65625,0.0,0.0,0.125,0.0,-0.1875,0.0,0.0,0.34375,-0.1875,-1.34375,-0.34375,0.0,0.46875,-0.34375,0.0,0.125,0.0,-0.03125,0.21875,0.0,-0.71875,-0.25,-0.46875,-0.375,-0.78125,0.65625,-0.0625,0.0,-0.40625,-0.40625,-0.40625,0.0,0.0,-3.90625,0.15625,0.25,0.0,0.0,-0.28125,-0.0625,0.40625,0.3125,0.0,0.0,0.0,0.21875,0.625,-0.15625,0.5625,0.0,0.0,-0.5625,-0.5625,0.0,0.0,-0.71875,0.0,0.0,0.0,-0.46875,-0.625,0.09375,-0.375,0.0,-2.0,0.28125,0.0,0.1875,0.1875,0.0,0.5625,0.0,0.0,0.0,0.0,0.0,0.0,0.0,0.0,-0.15625,0.28125,0.0,0.0,0.0,0.0,-0.15625,-0.25,-0.40625,-0.4375,-0.4375,0.0,-0.4375,0.0,0.40625,-0.71875,0.0,0.0,0.0,-0.15625,0.15625,0.0625,0.0,0.0,0.0,0.0,0.0,-0.125,0.21875,0.0,0.0,-0.1875,0.0,0.5625,0.0,0.0,0.0,-0.15625,0.4375,0.21875,-0.28125,0.0,0.0,-0.375,-0.09375,0.0,-0.21875,0.0,0.0,0.0,0.0,0.21875,0.15625,0.09375,0.1875,-0.21875,0.0,0.0,0.90625,0.0,0.0,0.0,-0.375,0.09375,-0.3125,0.21875,0.28125,-0.5625,-0.5,-0.59375,0.0,0.0,-0.65625,0.0,-0.25,0.34375,0.0,0.0,0.09375,0.34375,0.1875,0.21875,-1.0,0.0,0.0,-0.46875,0.0,0.21875,0.0,0.53125,0.0,0.875,0.3125,0.25,-0.375,0.0625,0.0,1.03125,0.71875,0.0,0.0,0.375,0.0,0.0,-1.84375,0.6875,0.21875,0.0,-3.96875,-0.1875,-0.1875,0.40625,-0.8125,-0.1875,-1.90625,0.34375,0.0,0.125 };
static dense_biases_t dense11Biases[DENSE_11_OUTPUT_WIDTH] = {0.1875,0.21875,0.46875,0.59375,0.125,0.6875,2.53125,-0.28125,0.40625,-0.0625,0.25,-0.03125,0.25,0.3125,-0.5625,-0.1875 };
static dense_weight_t dense11Weights[(MODEL_INPUT_WIDTH+DENSE_5_OUTPUT_WIDTH+DENSE_10_OUTPUT_WIDTH) * DENSE_11_OUTPUT_WIDTH] = {0.0,0.65625,0.0,0.40625,-0.09375,0.0,-0.53125,0.53125,-0.09375,-0.28125,-0.25,0.59375,0.84375,0.21875,-0.125,0.4375,-0.5,0.15625,0.15625,0.0,0.3125,0.0,-0.6875,0.0,0.21875,0.6875,0.0,0.0,0.0,0.0,-0.03125,0.5,0.0,0.3125,0.0,0.65625,0.0,0.0,0.46875,0.09375,0.0,-0.09375,0.0,0.0,0.0,0.15625,0.0,0.0,0.15625,0.0,0.25,0.0,0.0,0.0,-0.65625,-0.21875,0.0,0.0,-0.625,0.0,0.0625,0.0,0.0,0.0,0.59375,-0.4375,0.40625,0.0,0.375,0.0,-0.8125,-0.5,0.0,0.3125,0.0,-0.3125,-0.34375,0.0,0.0,0.0,0.0,0.0,0.03125,0.0,-0.15625,-2.28125,-0.625,-0.46875,0.0625,0.3125,-1.75,-0.46875,-0.125,-0.40625,-0.09375,-0.5625,0.15625,0.0,0.0,-0.6875,0.21875,0.0,-2.09375,0.0,0.0,0.0,-0.3125,0.0,0.0,0.0,0.0,0.21875,0.0,0.0,0.84375,-0.1875,0.0,-0.09375,0.3125,-0.8125,0.0,-0.3125,0.0,0.0,-0.03125,0.0,0.0,-0.8125,0.0,0.125,0.0,0.0,-0.1875,0.0,2.15625,0.0,0.4375,0.0625,0.0,0.0,0.34375,0.0,-0.03125,0.0,0.0,0.46875,0.0,0.0,-0.75,0.5,0.03125,-1.4375,-0.5625,0.78125,0.0,0.6875,-0.40625,0.15625,-0.9375,-0.15625,0.0,0.0,-0.25,-0.09375,1.28125,-0.125,1.1875,0.09375,0.0,0.25,-1.15625,-0.03125,0.0,-0.46875,0.28125,-0.40625,0.6875,0.0625,0.15625,0.0,0.59375,0.0,-3.0625,-1.09375,-0.59375,0.125,0.25,-0.09375,0.375,0.0,-0.5,0.0,0.34375,0.09375,0.0,0.65625,0.0,0.0,0.34375,-1.1875,0.75,0.0625,0.15625,0.34375,0.15625,-0.25,-0.03125,0.3125,0.09375,-0.90625,-1.0,0.125,3.78125,0.75,-3.96875,2.3125,2.03125,-0.15625,-1.34375,1.8125,-0.46875,0.34375,0.1875,-1.8125,0.34375,0.0,0.0,0.21875,0.84375,0.0,-0.9375,-0.09375,0.0,0.0,-0.59375,0.46875,0.0,0.5625,-0.375,0.0,0.0,0.0,-0.46875,0.0,0.0625,0.0,0.0,0.0,-0.75,0.03125,0.0,0.0,0.0,0.6875,0.0,0.0,0.59375,0.40625,0.0,-0.59375,0.0,-0.71875,0.8125,-0.09375,0.0,0.21875,0.5625,0.3125,0.625,0.0,0.0,0.0,0.0,0.0,0.0,0.0,0.1875,0.9375,-3.78125,-0.46875,-2.09375,-0.1875,1.15625,0.0,0.0,0.0,-0.125,0.0,0.0,0.03125,0.71875,0.0,-0.125,0.0,0.4375,0.125,0.0,0.0,-0.21875,0.0,0.28125,-0.78125,0.0,0.0,-0.34375,-0.3125,-0.1875,-0.40625,-0.375,1.5,1.0625,-0.75,0.875,0.125,-1.34375,0.0,0.3125,0.0,0.09375,0.59375,0.0,-0.25,0.0,0.1875,0.46875,-0.3125,1.25,0.0,0.0,0.0,0.0,0.0,0.0,0.65625,0.0,0.03125,0.0,0.0,0.5625,0.71875,0.1875,0.0,2.71875,0.28125,0.28125,-0.0625,0.15625,0.0,0.6875,0.8125,0.3125,0.0,0.6875,0.0,0.4375,0.0,0.375,0.71875,1.0,0.0,0.0,0.0,0.0,0.0,0.3125,0.0,0.0,0.6875,0.0,0.0,0.0,0.0,-0.65625,0.0,-3.96875,-3.65625,0.1875,0.0,-0.125,0.0,0.0,0.0,0.0,0.0,0.0,0.0,-0.0625,0.0,0.375,0.0,-3.96875,-0.125,0.0,0.0,-0.96875,-0.21875,0.0,0.0,1.15625,0.1875,0.59375,-0.25,0.125,0.09375,-0.53125,0.0,0.15625,-0.84375,-0.03125,0.0,0.0,0.5625,0.0,-0.09375,-2.1875,0.0,0.0,-0.25,0.0,-0.125,0.0,0.0,-3.96875,-2.4375,0.0,0.15625,0.71875,0.0,-0.1875,-0.25,0.25,0.46875,-0.375,0.125,0.0625,0.0,0.0,-0.0625,-1.3125,-1.09375,0.0,0.65625,0.34375,0.0,0.0,0.0,-0.34375,0.1875,1.03125,0.59375,0.0,0.15625,0.0,1.1875,-1.9375,0.0,0.1875,0.0,0.0,0.25,0.0,0.4375,0.6875,0.5625,0.0,0.0,-0.34375,-0.0625,0.15625,-0.3125,0.0,-0.15625,0.0,0.0,0.21875,0.0,-0.3125,0.15625,0.46875,0.0,-0.40625,0.0,0.0,-0.21875,0.0,0.125,0.03125,0.03125,0.0,0.0,-3.96875,-0.625,0.0,0.21875,-0.5,0.0,0.0,0.0,0.0,-0.28125,0.0,-0.03125,-3.9375,0.28125,0.0,0.0,0.0,0.0,0.0,0.0,0.375,0.0,0.21875,0.0,0.0,0.0,-0.15625,0.1875,-3.96875,2.125,-0.28125,0.03125,0.4375,0.09375,0.0,0.0,0.375,0.59375,-1.09375,0.0,0.0,0.0,0.0,-0.71875,1.15625,0.625,-3.90625,0.8125,0.0,0.0,-0.21875,0.0,2.75,0.59375,-0.28125,0.0,0.28125,0.46875,0.71875,-0.59375,0.34375,-0.65625,0.15625,0.0,-3.125,0.0,0.5,0.0,0.0,0.0,0.0,0.0,0.0,0.46875,0.0,0.0,0.0,-1.0625,0.0,0.0,-0.03125,0.09375,0.0,0.34375,-1.15625,-0.3125,0.15625,0.0,0.03125,0.09375,0.46875,0.0,1.1875,1.40625,0.3125,0.28125,0.28125,-0.125,0.25,0.0,0.53125,-0.09375 };
static gravnet_biases_t tposBiases[TPOS_WIDTH] = {0.01953125,-0.001953125,-0.16455078 };
static gravnet_weight_t tposWeights[DENSE_11_OUTPUT_WIDTH * TPOS_WIDTH] = {0.0,0.15771484,0.0,-0.23291016,-0.044921875,0.29638672,0.4272461,-0.3642578,-0.14550781,-0.40283203,0.11035156,-0.4921875,0.0,0.0,0.0,0.0,-0.1821289,-0.14160156,0.0,0.0,0.0014648438,0.0,0.0,-0.0146484375,0.0,-0.13232422,0.0,-0.0034179688,0.12695312,-0.0703125,0.08691406,0.0,0.0,0.0,-0.079589844,0.26123047,-0.13623047,-0.17529297,0.40234375,0.29736328,0.39990234,0.13574219,-0.013183594,-0.049804688,0.0,0.0,0.0,0.0 };
static gravnet_biases_t ccordsBiases[CCORDS_WIDTH] = {-0.00048828125,0.00048828125,0.00048828125 };
static gravnet_weight_t ccordsWeights[DENSE_11_OUTPUT_WIDTH * CCORDS_WIDTH] = {0.0,0.0,0.13183594,0.10205078,-0.5473633,1.1230469,-1.7138672,-1.1708984,-0.15039062,0.83154297,-0.57958984,-1.8740234,0.0,0.62060547,0.0,0.0,0.0,-0.9111328,0.0,0.0,0.0,-0.07080078,0.0,0.012207031,0.0,0.0,0.040527344,0.043945312,0.1303711,-0.18652344,-0.35205078,0.045898438,0.0,0.6816406,0.41015625,0.52685547,0.66796875,0.0,0.72216797,-0.6899414,1.3256836,0.0,0.0,-0.11425781,0.0,0.083984375,0.0,0.0 };
static gravnet_biases_t betaBiases[BETA_WIDTH] = {2.6871338 };
static gravnet_weight_t betaWeights[DENSE_11_OUTPUT_WIDTH * BETA_WIDTH] = {-0.9761963,0.0,0.0,0.82958984,-1.1618652,0.0,3.999878,-3.999878,0.6738281,0.0,0.0,0.0,1.6502686,1.0292969,-3.999878,-2.0147705 };
static gravnet_biases_t energyBiases[ENERGY_WIDTH] = {0.13134766 };
static gravnet_weight_t energyWeights[DENSE_11_OUTPUT_WIDTH * ENERGY_WIDTH] = {-0.44384766,0.3798828,0.37646484,0.0,0.0,0.0,0.0,-0.0234375,0.0,0.9433594,0.0,0.44970703,-0.3930664,0.18554688,1.2163086,0.08691406 };
static gravnet_biases_t signalBiases[SIGNAL_WIDTH] = {0.84399414 };
static gravnet_weight_t signalWeights[DENSE_11_OUTPUT_WIDTH * SIGNAL_WIDTH] = {-1.2072754,1.9476318,1.3190918,0.0,-3.0061035,0.0,0.5645752,0.0,0.13745117,3.5111084,-0.38427734,0.5710449,0.0,2.2386475,0.0,0.0 };

#endif 
